digraph Tree {
node [shape=box, style="filled, rounded", color="black", fontname=helvetica] ;
edge [fontname=helvetica] ;
0 [label=<Sex &le; 0.5<br/>gini = 0.478<br/>samples = 571<br/>value = [345, 226]<br/>class = died>, fillcolor="#e5813958"] ;
1 [label=<Age &le; 13.0<br/>gini = 0.325<br/>samples = 367<br/>value = [292, 75]<br/>class = died>, fillcolor="#e58139be"] ;
0 -> 1 [labeldistance=2.5, labelangle=45, headlabel="True"] ;
2 [label=<SibSp &le; 2.5<br/>gini = 0.48<br/>samples = 30<br/>value = [12, 18]<br/>class = survived>, fillcolor="#399de555"] ;
1 -> 2 ;
3 [label=<Parch &le; 0.5<br/>gini = 0.1<br/>samples = 19<br/>value = [1, 18]<br/>class = survived>, fillcolor="#399de5f1"] ;
2 -> 3 ;
4 [label=<Fare &le; 15.015<br/>gini = 0.5<br/>samples = 2<br/>value = [1, 1]<br/>class = died>, fillcolor="#e5813900"] ;
3 -> 4 ;
5 [label=<gini = 0.0<br/>samples = 1<br/>value = [0, 1]<br/>class = survived>, fillcolor="#399de5ff"] ;
4 -> 5 ;
6 [label=<gini = 0.0<br/>samples = 1<br/>value = [1, 0]<br/>class = died>, fillcolor="#e58139ff"] ;
4 -> 6 ;
7 [label=<gini = 0.0<br/>samples = 17<br/>value = [0, 17]<br/>class = survived>, fillcolor="#399de5ff"] ;
3 -> 7 ;
8 [label=<gini = 0.0<br/>samples = 11<br/>value = [11, 0]<br/>class = died>, fillcolor="#e58139ff"] ;
2 -> 8 ;
9 [label=<Pclass &le; 1.5<br/>gini = 0.281<br/>samples = 337<br/>value = [280, 57]<br/>class = died>, fillcolor="#e58139cb"] ;
1 -> 9 ;
10 [label=<Age &le; 53.0<br/>gini = 0.456<br/>samples = 74<br/>value = [48, 26]<br/>class = died>, fillcolor="#e5813975"] ;
9 -> 10 ;
11 [label=<Age &le; 47.5<br/>gini = 0.487<br/>samples = 55<br/>value = [32, 23]<br/>class = died>, fillcolor="#e5813948"] ;
10 -> 11 ;
12 [label=<Age &le; 45.25<br/>gini = 0.458<br/>samples = 45<br/>value = [29, 16]<br/>class = died>, fillcolor="#e5813972"] ;
11 -> 12 ;
13 [label=<Fare &le; 387.665<br/>gini = 0.484<br/>samples = 39<br/>value = [23, 16]<br/>class = died>, fillcolor="#e581394e"] ;
12 -> 13 ;
14 [label=<Age &le; 24.5<br/>gini = 0.47<br/>samples = 37<br/>value = [23, 14]<br/>class = died>, fillcolor="#e5813964"] ;
13 -> 14 ;
15 [label=<Age &le; 17.5<br/>gini = 0.245<br/>samples = 7<br/>value = [6, 1]<br/>class = died>, fillcolor="#e58139d4"] ;
14 -> 15 ;
16 [label=<gini = 0.0<br/>samples = 1<br/>value = [0, 1]<br/>class = survived>, fillcolor="#399de5ff"] ;
15 -> 16 ;
17 [label=<gini = 0.0<br/>samples = 6<br/>value = [6, 0]<br/>class = died>, fillcolor="#e58139ff"] ;
15 -> 17 ;
18 [label=<Age &le; 26.5<br/>gini = 0.491<br/>samples = 30<br/>value = [17, 13]<br/>class = died>, fillcolor="#e581393c"] ;
14 -> 18 ;
19 [label=<gini = 0.0<br/>samples = 2<br/>value = [0, 2]<br/>class = survived>, fillcolor="#399de5ff"] ;
18 -> 19 ;
20 [label=<Fare &le; 15.644<br/>gini = 0.477<br/>samples = 28<br/>value = [17, 11]<br/>class = died>, fillcolor="#e581395a"] ;
18 -> 20 ;
21 [label=<gini = 0.0<br/>samples = 3<br/>value = [3, 0]<br/>class = died>, fillcolor="#e58139ff"] ;
20 -> 21 ;
22 [label=<Fare &le; 27.135<br/>gini = 0.493<br/>samples = 25<br/>value = [14, 11]<br/>class = died>, fillcolor="#e5813937"] ;
20 -> 22 ;
23 [label=<Age &le; 43.5<br/>gini = 0.278<br/>samples = 6<br/>value = [1, 5]<br/>class = survived>, fillcolor="#399de5cc"] ;
22 -> 23 ;
24 [label=<gini = 0.0<br/>samples = 4<br/>value = [0, 4]<br/>class = survived>, fillcolor="#399de5ff"] ;
23 -> 24 ;
25 [label=<HasCabin &le; 0.5<br/>gini = 0.5<br/>samples = 2<br/>value = [1, 1]<br/>class = died>, fillcolor="#e5813900"] ;
23 -> 25 ;
26 [label=<gini = 0.0<br/>samples = 1<br/>value = [0, 1]<br/>class = survived>, fillcolor="#399de5ff"] ;
25 -> 26 ;
27 [label=<gini = 0.0<br/>samples = 1<br/>value = [1, 0]<br/>class = died>, fillcolor="#e58139ff"] ;
25 -> 27 ;
28 [label=<Fare &le; 30.25<br/>gini = 0.432<br/>samples = 19<br/>value = [13, 6]<br/>class = died>, fillcolor="#e5813989"] ;
22 -> 28 ;
29 [label=<gini = 0.0<br/>samples = 4<br/>value = [4, 0]<br/>class = died>, fillcolor="#e58139ff"] ;
28 -> 29 ;
30 [label=<Fare &le; 41.3<br/>gini = 0.48<br/>samples = 15<br/>value = [9, 6]<br/>class = died>, fillcolor="#e5813955"] ;
28 -> 30 ;
31 [label=<gini = 0.0<br/>samples = 3<br/>value = [0, 3]<br/>class = survived>, fillcolor="#399de5ff"] ;
30 -> 31 ;
32 [label=<Parch &le; 0.5<br/>gini = 0.375<br/>samples = 12<br/>value = [9, 3]<br/>class = died>, fillcolor="#e58139aa"] ;
30 -> 32 ;
33 [label=<Fare &le; 86.738<br/>gini = 0.298<br/>samples = 11<br/>value = [9, 2]<br/>class = died>, fillcolor="#e58139c6"] ;
32 -> 33 ;
34 [label=<Fare &le; 55.05<br/>gini = 0.198<br/>samples = 9<br/>value = [8, 1]<br/>class = died>, fillcolor="#e58139df"] ;
33 -> 34 ;
35 [label=<gini = 0.0<br/>samples = 4<br/>value = [4, 0]<br/>class = died>, fillcolor="#e58139ff"] ;
34 -> 35 ;
36 [label=<Fare &le; 61.8<br/>gini = 0.32<br/>samples = 5<br/>value = [4, 1]<br/>class = died>, fillcolor="#e58139bf"] ;
34 -> 36 ;
37 [label=<gini = 0.0<br/>samples = 1<br/>value = [0, 1]<br/>class = survived>, fillcolor="#399de5ff"] ;
36 -> 37 ;
38 [label=<gini = 0.0<br/>samples = 4<br/>value = [4, 0]<br/>class = died>, fillcolor="#e58139ff"] ;
36 -> 38 ;
39 [label=<SibSp &le; 1.5<br/>gini = 0.5<br/>samples = 2<br/>value = [1, 1]<br/>class = died>, fillcolor="#e5813900"] ;
33 -> 39 ;
40 [label=<gini = 0.0<br/>samples = 1<br/>value = [0, 1]<br/>class = survived>, fillcolor="#399de5ff"] ;
39 -> 40 ;
41 [label=<gini = 0.0<br/>samples = 1<br/>value = [1, 0]<br/>class = died>, fillcolor="#e58139ff"] ;
39 -> 41 ;
42 [label=<gini = 0.0<br/>samples = 1<br/>value = [0, 1]<br/>class = survived>, fillcolor="#399de5ff"] ;
32 -> 42 ;
43 [label=<gini = 0.0<br/>samples = 2<br/>value = [0, 2]<br/>class = survived>, fillcolor="#399de5ff"] ;
13 -> 43 ;
44 [label=<gini = 0.0<br/>samples = 6<br/>value = [6, 0]<br/>class = died>, fillcolor="#e58139ff"] ;
12 -> 44 ;
45 [label=<Parch &le; 0.5<br/>gini = 0.42<br/>samples = 10<br/>value = [3, 7]<br/>class = survived>, fillcolor="#399de592"] ;
11 -> 45 ;
46 [label=<Fare &le; 53.95<br/>gini = 0.219<br/>samples = 8<br/>value = [1, 7]<br/>class = survived>, fillcolor="#399de5db"] ;
45 -> 46 ;
47 [label=<gini = 0.0<br/>samples = 4<br/>value = [0, 4]<br/>class = survived>, fillcolor="#399de5ff"] ;
46 -> 47 ;
48 [label=<Fare &le; 66.315<br/>gini = 0.375<br/>samples = 4<br/>value = [1, 3]<br/>class = survived>, fillcolor="#399de5aa"] ;
46 -> 48 ;
49 [label=<gini = 0.0<br/>samples = 1<br/>value = [1, 0]<br/>class = died>, fillcolor="#e58139ff"] ;
48 -> 49 ;
50 [label=<gini = 0.0<br/>samples = 3<br/>value = [0, 3]<br/>class = survived>, fillcolor="#399de5ff"] ;
48 -> 50 ;
51 [label=<gini = 0.0<br/>samples = 2<br/>value = [2, 0]<br/>class = died>, fillcolor="#e58139ff"] ;
45 -> 51 ;
52 [label=<Age &le; 75.5<br/>gini = 0.266<br/>samples = 19<br/>value = [16, 3]<br/>class = died>, fillcolor="#e58139cf"] ;
10 -> 52 ;
53 [label=<Embarked &le; 0.5<br/>gini = 0.198<br/>samples = 18<br/>value = [16, 2]<br/>class = died>, fillcolor="#e58139df"] ;
52 -> 53 ;
54 [label=<gini = 0.0<br/>samples = 11<br/>value = [11, 0]<br/>class = died>, fillcolor="#e58139ff"] ;
53 -> 54 ;
55 [label=<SibSp &le; 0.5<br/>gini = 0.408<br/>samples = 7<br/>value = [5, 2]<br/>class = died>, fillcolor="#e5813999"] ;
53 -> 55 ;
56 [label=<Age &le; 57.0<br/>gini = 0.278<br/>samples = 6<br/>value = [5, 1]<br/>class = died>, fillcolor="#e58139cc"] ;
55 -> 56 ;
57 [label=<Fare &le; 33.098<br/>gini = 0.5<br/>samples = 2<br/>value = [1, 1]<br/>class = died>, fillcolor="#e5813900"] ;
56 -> 57 ;
58 [label=<gini = 0.0<br/>samples = 1<br/>value = [1, 0]<br/>class = died>, fillcolor="#e58139ff"] ;
57 -> 58 ;
59 [label=<gini = 0.0<br/>samples = 1<br/>value = [0, 1]<br/>class = survived>, fillcolor="#399de5ff"] ;
57 -> 59 ;
60 [label=<gini = 0.0<br/>samples = 4<br/>value = [4, 0]<br/>class = died>, fillcolor="#e58139ff"] ;
56 -> 60 ;
61 [label=<gini = 0.0<br/>samples = 1<br/>value = [0, 1]<br/>class = survived>, fillcolor="#399de5ff"] ;
55 -> 61 ;
62 [label=<gini = 0.0<br/>samples = 1<br/>value = [0, 1]<br/>class = survived>, fillcolor="#399de5ff"] ;
52 -> 62 ;
63 [label=<Age &le; 32.25<br/>gini = 0.208<br/>samples = 263<br/>value = [232, 31]<br/>class = died>, fillcolor="#e58139dd"] ;
9 -> 63 ;
64 [label=<Age &le; 30.75<br/>gini = 0.265<br/>samples = 178<br/>value = [150, 28]<br/>class = died>, fillcolor="#e58139cf"] ;
63 -> 64 ;
65 [label=<Embarked &le; 0.5<br/>gini = 0.219<br/>samples = 160<br/>value = [140, 20]<br/>class = died>, fillcolor="#e58139db"] ;
64 -> 65 ;
66 [label=<Fare &le; 7.012<br/>gini = 0.18<br/>samples = 140<br/>value = [126, 14]<br/>class = died>, fillcolor="#e58139e3"] ;
65 -> 66 ;
67 [label=<Age &le; 22.0<br/>gini = 0.5<br/>samples = 4<br/>value = [2, 2]<br/>class = died>, fillcolor="#e5813900"] ;
66 -> 67 ;
68 [label=<gini = 0.0<br/>samples = 2<br/>value = [2, 0]<br/>class = died>, fillcolor="#e58139ff"] ;
67 -> 68 ;
69 [label=<gini = 0.0<br/>samples = 2<br/>value = [0, 2]<br/>class = survived>, fillcolor="#399de5ff"] ;
67 -> 69 ;
70 [label=<Fare &le; 11.0<br/>gini = 0.161<br/>samples = 136<br/>value = [124, 12]<br/>class = died>, fillcolor="#e58139e6"] ;
66 -> 70 ;
71 [label=<Fare &le; 7.91<br/>gini = 0.207<br/>samples = 94<br/>value = [83, 11]<br/>class = died>, fillcolor="#e58139dd"] ;
70 -> 71 ;
72 [label=<Age &le; 23.5<br/>gini = 0.124<br/>samples = 45<br/>value = [42, 3]<br/>class = died>, fillcolor="#e58139ed"] ;
71 -> 72 ;
73 [label=<gini = 0.0<br/>samples = 23<br/>value = [23, 0]<br/>class = died>, fillcolor="#e58139ff"] ;
72 -> 73 ;
74 [label=<SibSp &le; 0.5<br/>gini = 0.236<br/>samples = 22<br/>value = [19, 3]<br/>class = died>, fillcolor="#e58139d7"] ;
72 -> 74 ;
75 [label=<Fare &le; 7.825<br/>gini = 0.18<br/>samples = 20<br/>value = [18, 2]<br/>class = died>, fillcolor="#e58139e3"] ;
74 -> 75 ;
76 [label=<Fare &le; 7.785<br/>gini = 0.278<br/>samples = 12<br/>value = [10, 2]<br/>class = died>, fillcolor="#e58139cc"] ;
75 -> 76 ;
77 [label=<Age &le; 24.5<br/>gini = 0.18<br/>samples = 10<br/>value = [9, 1]<br/>class = died>, fillcolor="#e58139e3"] ;
76 -> 77 ;
78 [label=<Fare &le; 7.096<br/>gini = 0.444<br/>samples = 3<br/>value = [2, 1]<br/>class = died>, fillcolor="#e581397f"] ;
77 -> 78 ;
79 [label=<gini = 0.0<br/>samples = 1<br/>value = [1, 0]<br/>class = died>, fillcolor="#e58139ff"] ;
78 -> 79 ;
80 [label=<Fare &le; 7.319<br/>gini = 0.5<br/>samples = 2<br/>value = [1, 1]<br/>class = died>, fillcolor="#e5813900"] ;
78 -> 80 ;
81 [label=<gini = 0.0<br/>samples = 1<br/>value = [0, 1]<br/>class = survived>, fillcolor="#399de5ff"] ;
80 -> 81 ;
82 [label=<gini = 0.0<br/>samples = 1<br/>value = [1, 0]<br/>class = died>, fillcolor="#e58139ff"] ;
80 -> 82 ;
83 [label=<gini = 0.0<br/>samples = 7<br/>value = [7, 0]<br/>class = died>, fillcolor="#e58139ff"] ;
77 -> 83 ;
84 [label=<Age &le; 25.5<br/>gini = 0.5<br/>samples = 2<br/>value = [1, 1]<br/>class = died>, fillcolor="#e5813900"] ;
76 -> 84 ;
85 [label=<gini = 0.0<br/>samples = 1<br/>value = [1, 0]<br/>class = died>, fillcolor="#e58139ff"] ;
84 -> 85 ;
86 [label=<gini = 0.0<br/>samples = 1<br/>value = [0, 1]<br/>class = survived>, fillcolor="#399de5ff"] ;
84 -> 86 ;
87 [label=<gini = 0.0<br/>samples = 8<br/>value = [8, 0]<br/>class = died>, fillcolor="#e58139ff"] ;
75 -> 87 ;
88 [label=<Fare &le; 7.815<br/>gini = 0.5<br/>samples = 2<br/>value = [1, 1]<br/>class = died>, fillcolor="#e5813900"] ;
74 -> 88 ;
89 [label=<gini = 0.0<br/>samples = 1<br/>value = [0, 1]<br/>class = survived>, fillcolor="#399de5ff"] ;
88 -> 89 ;
90 [label=<gini = 0.0<br/>samples = 1<br/>value = [1, 0]<br/>class = died>, fillcolor="#e58139ff"] ;
88 -> 90 ;
91 [label=<Age &le; 20.5<br/>gini = 0.273<br/>samples = 49<br/>value = [41, 8]<br/>class = died>, fillcolor="#e58139cd"] ;
71 -> 91 ;
92 [label=<Fare &le; 8.175<br/>gini = 0.375<br/>samples = 20<br/>value = [15, 5]<br/>class = died>, fillcolor="#e58139aa"] ;
91 -> 92 ;
93 [label=<SibSp &le; 0.5<br/>gini = 0.5<br/>samples = 8<br/>value = [4, 4]<br/>class = died>, fillcolor="#e5813900"] ;
92 -> 93 ;
94 [label=<Age &le; 19.5<br/>gini = 0.49<br/>samples = 7<br/>value = [4, 3]<br/>class = died>, fillcolor="#e5813940"] ;
93 -> 94 ;
95 [label=<Age &le; 17.0<br/>gini = 0.48<br/>samples = 5<br/>value = [2, 3]<br/>class = survived>, fillcolor="#399de555"] ;
94 -> 95 ;
96 [label=<gini = 0.5<br/>samples = 2<br/>value = [1, 1]<br/>class = died>, fillcolor="#e5813900"] ;
95 -> 96 ;
97 [label=<Age &le; 18.5<br/>gini = 0.444<br/>samples = 3<br/>value = [1, 2]<br/>class = survived>, fillcolor="#399de57f"] ;
95 -> 97 ;
98 [label=<gini = 0.0<br/>samples = 1<br/>value = [0, 1]<br/>class = survived>, fillcolor="#399de5ff"] ;
97 -> 98 ;
99 [label=<gini = 0.5<br/>samples = 2<br/>value = [1, 1]<br/>class = died>, fillcolor="#e5813900"] ;
97 -> 99 ;
100 [label=<gini = 0.0<br/>samples = 2<br/>value = [2, 0]<br/>class = died>, fillcolor="#e58139ff"] ;
94 -> 100 ;
101 [label=<gini = 0.0<br/>samples = 1<br/>value = [0, 1]<br/>class = survived>, fillcolor="#399de5ff"] ;
93 -> 101 ;
102 [label=<Pclass &le; 2.5<br/>gini = 0.153<br/>samples = 12<br/>value = [11, 1]<br/>class = died>, fillcolor="#e58139e8"] ;
92 -> 102 ;
103 [label=<Age &le; 17.5<br/>gini = 0.444<br/>samples = 3<br/>value = [2, 1]<br/>class = died>, fillcolor="#e581397f"] ;
102 -> 103 ;
104 [label=<gini = 0.0<br/>samples = 1<br/>value = [1, 0]<br/>class = died>, fillcolor="#e58139ff"] ;
103 -> 104 ;
105 [label=<gini = 0.5<br/>samples = 2<br/>value = [1, 1]<br/>class = died>, fillcolor="#e5813900"] ;
103 -> 105 ;
106 [label=<gini = 0.0<br/>samples = 9<br/>value = [9, 0]<br/>class = died>, fillcolor="#e58139ff"] ;
102 -> 106 ;
107 [label=<Age &le; 26.5<br/>gini = 0.185<br/>samples = 29<br/>value = [26, 3]<br/>class = died>, fillcolor="#e58139e2"] ;
91 -> 107 ;
108 [label=<gini = 0.0<br/>samples = 16<br/>value = [16, 0]<br/>class = died>, fillcolor="#e58139ff"] ;
107 -> 108 ;
109 [label=<Age &le; 27.5<br/>gini = 0.355<br/>samples = 13<br/>value = [10, 3]<br/>class = died>, fillcolor="#e58139b3"] ;
107 -> 109 ;
110 [label=<gini = 0.0<br/>samples = 1<br/>value = [0, 1]<br/>class = survived>, fillcolor="#399de5ff"] ;
109 -> 110 ;
111 [label=<Fare &le; 9.492<br/>gini = 0.278<br/>samples = 12<br/>value = [10, 2]<br/>class = died>, fillcolor="#e58139cc"] ;
109 -> 111 ;
112 [label=<gini = 0.0<br/>samples = 6<br/>value = [6, 0]<br/>class = died>, fillcolor="#e58139ff"] ;
111 -> 112 ;
113 [label=<Fare &le; 10.0<br/>gini = 0.444<br/>samples = 6<br/>value = [4, 2]<br/>class = died>, fillcolor="#e581397f"] ;
111 -> 113 ;
114 [label=<Age &le; 28.5<br/>gini = 0.444<br/>samples = 3<br/>value = [1, 2]<br/>class = survived>, fillcolor="#399de57f"] ;
113 -> 114 ;
115 [label=<gini = 0.0<br/>samples = 1<br/>value = [1, 0]<br/>class = died>, fillcolor="#e58139ff"] ;
114 -> 115 ;
116 [label=<gini = 0.0<br/>samples = 2<br/>value = [0, 2]<br/>class = survived>, fillcolor="#399de5ff"] ;
114 -> 116 ;
117 [label=<gini = 0.0<br/>samples = 3<br/>value = [3, 0]<br/>class = died>, fillcolor="#e58139ff"] ;
113 -> 117 ;
118 [label=<Fare &le; 51.698<br/>gini = 0.046<br/>samples = 42<br/>value = [41, 1]<br/>class = died>, fillcolor="#e58139f9"] ;
70 -> 118 ;
119 [label=<gini = 0.0<br/>samples = 38<br/>value = [38, 0]<br/>class = died>, fillcolor="#e58139ff"] ;
118 -> 119 ;
120 [label=<Fare &le; 64.998<br/>gini = 0.375<br/>samples = 4<br/>value = [3, 1]<br/>class = died>, fillcolor="#e58139aa"] ;
118 -> 120 ;
121 [label=<Age &le; 27.0<br/>gini = 0.5<br/>samples = 2<br/>value = [1, 1]<br/>class = died>, fillcolor="#e5813900"] ;
120 -> 121 ;
122 [label=<gini = 0.0<br/>samples = 1<br/>value = [0, 1]<br/>class = survived>, fillcolor="#399de5ff"] ;
121 -> 122 ;
123 [label=<gini = 0.0<br/>samples = 1<br/>value = [1, 0]<br/>class = died>, fillcolor="#e58139ff"] ;
121 -> 123 ;
124 [label=<gini = 0.0<br/>samples = 2<br/>value = [2, 0]<br/>class = died>, fillcolor="#e58139ff"] ;
120 -> 124 ;
125 [label=<Fare &le; 7.746<br/>gini = 0.42<br/>samples = 20<br/>value = [14, 6]<br/>class = died>, fillcolor="#e5813992"] ;
65 -> 125 ;
126 [label=<Age &le; 23.5<br/>gini = 0.278<br/>samples = 12<br/>value = [10, 2]<br/>class = died>, fillcolor="#e58139cc"] ;
125 -> 126 ;
127 [label=<Age &le; 19.5<br/>gini = 0.408<br/>samples = 7<br/>value = [5, 2]<br/>class = died>, fillcolor="#e5813999"] ;
126 -> 127 ;
128 [label=<gini = 0.0<br/>samples = 3<br/>value = [3, 0]<br/>class = died>, fillcolor="#e58139ff"] ;
127 -> 128 ;
129 [label=<Fare &le; 5.619<br/>gini = 0.5<br/>samples = 4<br/>value = [2, 2]<br/>class = died>, fillcolor="#e5813900"] ;
127 -> 129 ;
130 [label=<gini = 0.0<br/>samples = 1<br/>value = [1, 0]<br/>class = died>, fillcolor="#e58139ff"] ;
129 -> 130 ;
131 [label=<Age &le; 21.0<br/>gini = 0.444<br/>samples = 3<br/>value = [1, 2]<br/>class = survived>, fillcolor="#399de57f"] ;
129 -> 131 ;
132 [label=<gini = 0.0<br/>samples = 1<br/>value = [0, 1]<br/>class = survived>, fillcolor="#399de5ff"] ;
131 -> 132 ;
133 [label=<Fare &le; 7.227<br/>gini = 0.5<br/>samples = 2<br/>value = [1, 1]<br/>class = died>, fillcolor="#e5813900"] ;
131 -> 133 ;
134 [label=<gini = 0.0<br/>samples = 1<br/>value = [0, 1]<br/>class = survived>, fillcolor="#399de5ff"] ;
133 -> 134 ;
135 [label=<gini = 0.0<br/>samples = 1<br/>value = [1, 0]<br/>class = died>, fillcolor="#e58139ff"] ;
133 -> 135 ;
136 [label=<gini = 0.0<br/>samples = 5<br/>value = [5, 0]<br/>class = died>, fillcolor="#e58139ff"] ;
126 -> 136 ;
137 [label=<Pclass &le; 2.5<br/>gini = 0.5<br/>samples = 8<br/>value = [4, 4]<br/>class = died>, fillcolor="#e5813900"] ;
125 -> 137 ;
138 [label=<gini = 0.0<br/>samples = 3<br/>value = [3, 0]<br/>class = died>, fillcolor="#e58139ff"] ;
137 -> 138 ;
139 [label=<SibSp &le; 0.5<br/>gini = 0.32<br/>samples = 5<br/>value = [1, 4]<br/>class = survived>, fillcolor="#399de5bf"] ;
137 -> 139 ;
140 [label=<gini = 0.0<br/>samples = 3<br/>value = [0, 3]<br/>class = survived>, fillcolor="#399de5ff"] ;
139 -> 140 ;
141 [label=<Fare &le; 15.098<br/>gini = 0.5<br/>samples = 2<br/>value = [1, 1]<br/>class = died>, fillcolor="#e5813900"] ;
139 -> 141 ;
142 [label=<gini = 0.0<br/>samples = 1<br/>value = [1, 0]<br/>class = died>, fillcolor="#e58139ff"] ;
141 -> 142 ;
143 [label=<gini = 0.0<br/>samples = 1<br/>value = [0, 1]<br/>class = survived>, fillcolor="#399de5ff"] ;
141 -> 143 ;
144 [label=<Embarked &le; 0.5<br/>gini = 0.494<br/>samples = 18<br/>value = [10, 8]<br/>class = died>, fillcolor="#e5813933"] ;
64 -> 144 ;
145 [label=<SibSp &le; 1.5<br/>gini = 0.498<br/>samples = 15<br/>value = [7, 8]<br/>class = survived>, fillcolor="#399de520"] ;
144 -> 145 ;
146 [label=<Fare &le; 20.925<br/>gini = 0.49<br/>samples = 14<br/>value = [6, 8]<br/>class = survived>, fillcolor="#399de540"] ;
145 -> 146 ;
147 [label=<HasCabin &le; 0.5<br/>gini = 0.496<br/>samples = 11<br/>value = [6, 5]<br/>class = died>, fillcolor="#e581392a"] ;
146 -> 147 ;
148 [label=<Fare &le; 7.815<br/>gini = 0.48<br/>samples = 10<br/>value = [6, 4]<br/>class = died>, fillcolor="#e5813955"] ;
147 -> 148 ;
149 [label=<gini = 0.0<br/>samples = 1<br/>value = [1, 0]<br/>class = died>, fillcolor="#e58139ff"] ;
148 -> 149 ;
150 [label=<Fare &le; 7.875<br/>gini = 0.494<br/>samples = 9<br/>value = [5, 4]<br/>class = died>, fillcolor="#e5813933"] ;
148 -> 150 ;
151 [label=<gini = 0.0<br/>samples = 1<br/>value = [0, 1]<br/>class = survived>, fillcolor="#399de5ff"] ;
150 -> 151 ;
152 [label=<Age &le; 31.5<br/>gini = 0.469<br/>samples = 8<br/>value = [5, 3]<br/>class = died>, fillcolor="#e5813966"] ;
150 -> 152 ;
153 [label=<Fare &le; 9.212<br/>gini = 0.444<br/>samples = 3<br/>value = [1, 2]<br/>class = survived>, fillcolor="#399de57f"] ;
152 -> 153 ;
154 [label=<gini = 0.0<br/>samples = 1<br/>value = [0, 1]<br/>class = survived>, fillcolor="#399de5ff"] ;
153 -> 154 ;
155 [label=<Fare &le; 11.75<br/>gini = 0.5<br/>samples = 2<br/>value = [1, 1]<br/>class = died>, fillcolor="#e5813900"] ;
153 -> 155 ;
156 [label=<gini = 0.0<br/>samples = 1<br/>value = [1, 0]<br/>class = died>, fillcolor="#e58139ff"] ;
155 -> 156 ;
157 [label=<gini = 0.0<br/>samples = 1<br/>value = [0, 1]<br/>class = survived>, fillcolor="#399de5ff"] ;
155 -> 157 ;
158 [label=<Fare &le; 9.212<br/>gini = 0.32<br/>samples = 5<br/>value = [4, 1]<br/>class = died>, fillcolor="#e58139bf"] ;
152 -> 158 ;
159 [label=<Fare &le; 7.91<br/>gini = 0.444<br/>samples = 3<br/>value = [2, 1]<br/>class = died>, fillcolor="#e581397f"] ;
158 -> 159 ;
160 [label=<gini = 0.0<br/>samples = 1<br/>value = [1, 0]<br/>class = died>, fillcolor="#e58139ff"] ;
159 -> 160 ;
161 [label=<gini = 0.5<br/>samples = 2<br/>value = [1, 1]<br/>class = died>, fillcolor="#e5813900"] ;
159 -> 161 ;
162 [label=<gini = 0.0<br/>samples = 2<br/>value = [2, 0]<br/>class = died>, fillcolor="#e58139ff"] ;
158 -> 162 ;
163 [label=<gini = 0.0<br/>samples = 1<br/>value = [0, 1]<br/>class = survived>, fillcolor="#399de5ff"] ;
147 -> 163 ;
164 [label=<gini = 0.0<br/>samples = 3<br/>value = [0, 3]<br/>class = survived>, fillcolor="#399de5ff"] ;
146 -> 164 ;
165 [label=<gini = 0.0<br/>samples = 1<br/>value = [1, 0]<br/>class = died>, fillcolor="#e58139ff"] ;
145 -> 165 ;
166 [label=<gini = 0.0<br/>samples = 3<br/>value = [3, 0]<br/>class = died>, fillcolor="#e58139ff"] ;
144 -> 166 ;
167 [label=<Age &le; 38.5<br/>gini = 0.068<br/>samples = 85<br/>value = [82, 3]<br/>class = died>, fillcolor="#e58139f6"] ;
63 -> 167 ;
168 [label=<gini = 0.0<br/>samples = 32<br/>value = [32, 0]<br/>class = died>, fillcolor="#e58139ff"] ;
167 -> 168 ;
169 [label=<Age &le; 44.5<br/>gini = 0.107<br/>samples = 53<br/>value = [50, 3]<br/>class = died>, fillcolor="#e58139f0"] ;
167 -> 169 ;
170 [label=<Fare &le; 13.75<br/>gini = 0.211<br/>samples = 25<br/>value = [22, 3]<br/>class = died>, fillcolor="#e58139dc"] ;
169 -> 170 ;
171 [label=<Fare &le; 7.91<br/>gini = 0.305<br/>samples = 16<br/>value = [13, 3]<br/>class = died>, fillcolor="#e58139c4"] ;
170 -> 171 ;
172 [label=<gini = 0.0<br/>samples = 6<br/>value = [6, 0]<br/>class = died>, fillcolor="#e58139ff"] ;
171 -> 172 ;
173 [label=<Fare &le; 7.988<br/>gini = 0.42<br/>samples = 10<br/>value = [7, 3]<br/>class = died>, fillcolor="#e5813992"] ;
171 -> 173 ;
174 [label=<Age &le; 41.5<br/>gini = 0.444<br/>samples = 3<br/>value = [1, 2]<br/>class = survived>, fillcolor="#399de57f"] ;
173 -> 174 ;
175 [label=<gini = 0.5<br/>samples = 2<br/>value = [1, 1]<br/>class = died>, fillcolor="#e5813900"] ;
174 -> 175 ;
176 [label=<gini = 0.0<br/>samples = 1<br/>value = [0, 1]<br/>class = survived>, fillcolor="#399de5ff"] ;
174 -> 176 ;
177 [label=<Pclass &le; 2.5<br/>gini = 0.245<br/>samples = 7<br/>value = [6, 1]<br/>class = died>, fillcolor="#e58139d4"] ;
173 -> 177 ;
178 [label=<Age &le; 40.5<br/>gini = 0.444<br/>samples = 3<br/>value = [2, 1]<br/>class = died>, fillcolor="#e581397f"] ;
177 -> 178 ;
179 [label=<gini = 0.0<br/>samples = 1<br/>value = [1, 0]<br/>class = died>, fillcolor="#e58139ff"] ;
178 -> 179 ;
180 [label=<gini = 0.5<br/>samples = 2<br/>value = [1, 1]<br/>class = died>, fillcolor="#e5813900"] ;
178 -> 180 ;
181 [label=<gini = 0.0<br/>samples = 4<br/>value = [4, 0]<br/>class = died>, fillcolor="#e58139ff"] ;
177 -> 181 ;
182 [label=<gini = 0.0<br/>samples = 9<br/>value = [9, 0]<br/>class = died>, fillcolor="#e58139ff"] ;
170 -> 182 ;
183 [label=<gini = 0.0<br/>samples = 28<br/>value = [28, 0]<br/>class = died>, fillcolor="#e58139ff"] ;
169 -> 183 ;
184 [label=<Pclass &le; 2.5<br/>gini = 0.385<br/>samples = 204<br/>value = [53, 151]<br/>class = survived>, fillcolor="#399de5a5"] ;
0 -> 184 [labeldistance=2.5, labelangle=-45, headlabel="False"] ;
185 [label=<Fare &le; 26.125<br/>gini = 0.08<br/>samples = 120<br/>value = [5, 115]<br/>class = survived>, fillcolor="#399de5f4"] ;
184 -> 185 ;
186 [label=<Parch &le; 0.5<br/>gini = 0.172<br/>samples = 42<br/>value = [4, 38]<br/>class = survived>, fillcolor="#399de5e4"] ;
185 -> 186 ;
187 [label=<Fare &le; 12.825<br/>gini = 0.213<br/>samples = 33<br/>value = [4, 29]<br/>class = survived>, fillcolor="#399de5dc"] ;
186 -> 187 ;
188 [label=<gini = 0.0<br/>samples = 8<br/>value = [0, 8]<br/>class = survived>, fillcolor="#399de5ff"] ;
187 -> 188 ;
189 [label=<Age &le; 27.5<br/>gini = 0.269<br/>samples = 25<br/>value = [4, 21]<br/>class = survived>, fillcolor="#399de5ce"] ;
187 -> 189 ;
190 [label=<Fare &le; 13.396<br/>gini = 0.408<br/>samples = 7<br/>value = [2, 5]<br/>class = survived>, fillcolor="#399de599"] ;
189 -> 190 ;
191 [label=<gini = 0.0<br/>samples = 1<br/>value = [1, 0]<br/>class = died>, fillcolor="#e58139ff"] ;
190 -> 191 ;
192 [label=<Age &le; 25.5<br/>gini = 0.278<br/>samples = 6<br/>value = [1, 5]<br/>class = survived>, fillcolor="#399de5cc"] ;
190 -> 192 ;
193 [label=<gini = 0.0<br/>samples = 4<br/>value = [0, 4]<br/>class = survived>, fillcolor="#399de5ff"] ;
192 -> 193 ;
194 [label=<Embarked &le; 0.5<br/>gini = 0.5<br/>samples = 2<br/>value = [1, 1]<br/>class = died>, fillcolor="#e5813900"] ;
192 -> 194 ;
195 [label=<gini = 0.0<br/>samples = 1<br/>value = [1, 0]<br/>class = died>, fillcolor="#e58139ff"] ;
194 -> 195 ;
196 [label=<gini = 0.0<br/>samples = 1<br/>value = [0, 1]<br/>class = survived>, fillcolor="#399de5ff"] ;
194 -> 196 ;
197 [label=<Age &le; 37.0<br/>gini = 0.198<br/>samples = 18<br/>value = [2, 16]<br/>class = survived>, fillcolor="#399de5df"] ;
189 -> 197 ;
198 [label=<gini = 0.0<br/>samples = 11<br/>value = [0, 11]<br/>class = survived>, fillcolor="#399de5ff"] ;
197 -> 198 ;
199 [label=<Age &le; 39.0<br/>gini = 0.408<br/>samples = 7<br/>value = [2, 5]<br/>class = survived>, fillcolor="#399de599"] ;
197 -> 199 ;
200 [label=<gini = 0.0<br/>samples = 1<br/>value = [1, 0]<br/>class = died>, fillcolor="#e58139ff"] ;
199 -> 200 ;
201 [label=<Fare &le; 25.965<br/>gini = 0.278<br/>samples = 6<br/>value = [1, 5]<br/>class = survived>, fillcolor="#399de5cc"] ;
199 -> 201 ;
202 [label=<gini = 0.0<br/>samples = 4<br/>value = [0, 4]<br/>class = survived>, fillcolor="#399de5ff"] ;
201 -> 202 ;
203 [label=<Age &le; 43.0<br/>gini = 0.5<br/>samples = 2<br/>value = [1, 1]<br/>class = died>, fillcolor="#e5813900"] ;
201 -> 203 ;
204 [label=<gini = 0.0<br/>samples = 1<br/>value = [0, 1]<br/>class = survived>, fillcolor="#399de5ff"] ;
203 -> 204 ;
205 [label=<gini = 0.0<br/>samples = 1<br/>value = [1, 0]<br/>class = died>, fillcolor="#e58139ff"] ;
203 -> 205 ;
206 [label=<gini = 0.0<br/>samples = 9<br/>value = [0, 9]<br/>class = survived>, fillcolor="#399de5ff"] ;
186 -> 206 ;
207 [label=<Fare &le; 143.592<br/>gini = 0.025<br/>samples = 78<br/>value = [1, 77]<br/>class = survived>, fillcolor="#399de5fc"] ;
185 -> 207 ;
208 [label=<gini = 0.0<br/>samples = 63<br/>value = [0, 63]<br/>class = survived>, fillcolor="#399de5ff"] ;
207 -> 208 ;
209 [label=<Fare &le; 152.506<br/>gini = 0.124<br/>samples = 15<br/>value = [1, 14]<br/>class = survived>, fillcolor="#399de5ed"] ;
207 -> 209 ;
210 [label=<SibSp &le; 0.5<br/>gini = 0.5<br/>samples = 2<br/>value = [1, 1]<br/>class = died>, fillcolor="#e5813900"] ;
209 -> 210 ;
211 [label=<gini = 0.0<br/>samples = 1<br/>value = [0, 1]<br/>class = survived>, fillcolor="#399de5ff"] ;
210 -> 211 ;
212 [label=<gini = 0.0<br/>samples = 1<br/>value = [1, 0]<br/>class = died>, fillcolor="#e58139ff"] ;
210 -> 212 ;
213 [label=<gini = 0.0<br/>samples = 13<br/>value = [0, 13]<br/>class = survived>, fillcolor="#399de5ff"] ;
209 -> 213 ;
214 [label=<Fare &le; 20.8<br/>gini = 0.49<br/>samples = 84<br/>value = [48, 36]<br/>class = died>, fillcolor="#e5813940"] ;
184 -> 214 ;
215 [label=<Parch &le; 0.5<br/>gini = 0.498<br/>samples = 62<br/>value = [29, 33]<br/>class = survived>, fillcolor="#399de51f"] ;
214 -> 215 ;
216 [label=<Fare &le; 7.742<br/>gini = 0.496<br/>samples = 46<br/>value = [25, 21]<br/>class = died>, fillcolor="#e5813929"] ;
215 -> 216 ;
217 [label=<Fare &le; 6.988<br/>gini = 0.245<br/>samples = 7<br/>value = [1, 6]<br/>class = survived>, fillcolor="#399de5d4"] ;
216 -> 217 ;
218 [label=<gini = 0.0<br/>samples = 1<br/>value = [1, 0]<br/>class = died>, fillcolor="#e58139ff"] ;
217 -> 218 ;
219 [label=<gini = 0.0<br/>samples = 6<br/>value = [0, 6]<br/>class = survived>, fillcolor="#399de5ff"] ;
217 -> 219 ;
220 [label=<Embarked &le; 1.5<br/>gini = 0.473<br/>samples = 39<br/>value = [24, 15]<br/>class = died>, fillcolor="#e5813960"] ;
216 -> 220 ;
221 [label=<Age &le; 25.5<br/>gini = 0.444<br/>samples = 33<br/>value = [22, 11]<br/>class = died>, fillcolor="#e581397f"] ;
220 -> 221 ;
222 [label=<Fare &le; 7.89<br/>gini = 0.346<br/>samples = 18<br/>value = [14, 4]<br/>class = died>, fillcolor="#e58139b6"] ;
221 -> 222 ;
223 [label=<Age &le; 18.5<br/>gini = 0.5<br/>samples = 6<br/>value = [3, 3]<br/>class = died>, fillcolor="#e5813900"] ;
222 -> 223 ;
224 [label=<gini = 0.0<br/>samples = 2<br/>value = [2, 0]<br/>class = died>, fillcolor="#e58139ff"] ;
223 -> 224 ;
225 [label=<Age &le; 23.5<br/>gini = 0.375<br/>samples = 4<br/>value = [1, 3]<br/>class = survived>, fillcolor="#399de5aa"] ;
223 -> 225 ;
226 [label=<gini = 0.0<br/>samples = 3<br/>value = [0, 3]<br/>class = survived>, fillcolor="#399de5ff"] ;
225 -> 226 ;
227 [label=<gini = 0.0<br/>samples = 1<br/>value = [1, 0]<br/>class = died>, fillcolor="#e58139ff"] ;
225 -> 227 ;
228 [label=<Age &le; 14.25<br/>gini = 0.153<br/>samples = 12<br/>value = [11, 1]<br/>class = died>, fillcolor="#e58139e8"] ;
222 -> 228 ;
229 [label=<gini = 0.0<br/>samples = 1<br/>value = [0, 1]<br/>class = survived>, fillcolor="#399de5ff"] ;
228 -> 229 ;
230 [label=<gini = 0.0<br/>samples = 11<br/>value = [11, 0]<br/>class = died>, fillcolor="#e58139ff"] ;
228 -> 230 ;
231 [label=<Fare &le; 7.91<br/>gini = 0.498<br/>samples = 15<br/>value = [8, 7]<br/>class = died>, fillcolor="#e5813920"] ;
221 -> 231 ;
232 [label=<gini = 0.0<br/>samples = 3<br/>value = [3, 0]<br/>class = died>, fillcolor="#e58139ff"] ;
231 -> 232 ;
233 [label=<Fare &le; 8.294<br/>gini = 0.486<br/>samples = 12<br/>value = [5, 7]<br/>class = survived>, fillcolor="#399de549"] ;
231 -> 233 ;
234 [label=<gini = 0.0<br/>samples = 2<br/>value = [0, 2]<br/>class = survived>, fillcolor="#399de5ff"] ;
233 -> 234 ;
235 [label=<Age &le; 28.0<br/>gini = 0.5<br/>samples = 10<br/>value = [5, 5]<br/>class = died>, fillcolor="#e5813900"] ;
233 -> 235 ;
236 [label=<gini = 0.0<br/>samples = 1<br/>value = [1, 0]<br/>class = died>, fillcolor="#e58139ff"] ;
235 -> 236 ;
237 [label=<Fare &le; 8.673<br/>gini = 0.494<br/>samples = 9<br/>value = [4, 5]<br/>class = survived>, fillcolor="#399de533"] ;
235 -> 237 ;
238 [label=<gini = 0.0<br/>samples = 1<br/>value = [1, 0]<br/>class = died>, fillcolor="#e58139ff"] ;
237 -> 238 ;
239 [label=<Fare &le; 17.7<br/>gini = 0.469<br/>samples = 8<br/>value = [3, 5]<br/>class = survived>, fillcolor="#399de566"] ;
237 -> 239 ;
240 [label=<Age &le; 36.5<br/>gini = 0.408<br/>samples = 7<br/>value = [2, 5]<br/>class = survived>, fillcolor="#399de599"] ;
239 -> 240 ;
241 [label=<gini = 0.0<br/>samples = 4<br/>value = [0, 4]<br/>class = survived>, fillcolor="#399de5ff"] ;
240 -> 241 ;
242 [label=<Age &le; 55.0<br/>gini = 0.444<br/>samples = 3<br/>value = [2, 1]<br/>class = died>, fillcolor="#e581397f"] ;
240 -> 242 ;
243 [label=<gini = 0.0<br/>samples = 2<br/>value = [2, 0]<br/>class = died>, fillcolor="#e58139ff"] ;
242 -> 243 ;
244 [label=<gini = 0.0<br/>samples = 1<br/>value = [0, 1]<br/>class = survived>, fillcolor="#399de5ff"] ;
242 -> 244 ;
245 [label=<gini = 0.0<br/>samples = 1<br/>value = [1, 0]<br/>class = died>, fillcolor="#e58139ff"] ;
239 -> 245 ;
246 [label=<Age &le; 20.0<br/>gini = 0.444<br/>samples = 6<br/>value = [2, 4]<br/>class = survived>, fillcolor="#399de57f"] ;
220 -> 246 ;
247 [label=<gini = 0.0<br/>samples = 3<br/>value = [0, 3]<br/>class = survived>, fillcolor="#399de5ff"] ;
246 -> 247 ;
248 [label=<Age &le; 21.5<br/>gini = 0.444<br/>samples = 3<br/>value = [2, 1]<br/>class = died>, fillcolor="#e581397f"] ;
246 -> 248 ;
249 [label=<gini = 0.0<br/>samples = 1<br/>value = [1, 0]<br/>class = died>, fillcolor="#e58139ff"] ;
248 -> 249 ;
250 [label=<Age &le; 26.25<br/>gini = 0.5<br/>samples = 2<br/>value = [1, 1]<br/>class = died>, fillcolor="#e5813900"] ;
248 -> 250 ;
251 [label=<gini = 0.0<br/>samples = 1<br/>value = [0, 1]<br/>class = survived>, fillcolor="#399de5ff"] ;
250 -> 251 ;
252 [label=<gini = 0.0<br/>samples = 1<br/>value = [1, 0]<br/>class = died>, fillcolor="#e58139ff"] ;
250 -> 252 ;
253 [label=<Age &le; 38.0<br/>gini = 0.375<br/>samples = 16<br/>value = [4, 12]<br/>class = survived>, fillcolor="#399de5aa"] ;
215 -> 253 ;
254 [label=<Age &le; 13.0<br/>gini = 0.245<br/>samples = 14<br/>value = [2, 12]<br/>class = survived>, fillcolor="#399de5d4"] ;
253 -> 254 ;
255 [label=<Fare &le; 10.798<br/>gini = 0.444<br/>samples = 6<br/>value = [2, 4]<br/>class = survived>, fillcolor="#399de57f"] ;
254 -> 255 ;
256 [label=<gini = 0.0<br/>samples = 1<br/>value = [1, 0]<br/>class = died>, fillcolor="#e58139ff"] ;
255 -> 256 ;
257 [label=<Age &le; 6.5<br/>gini = 0.32<br/>samples = 5<br/>value = [1, 4]<br/>class = survived>, fillcolor="#399de5bf"] ;
255 -> 257 ;
258 [label=<gini = 0.0<br/>samples = 4<br/>value = [0, 4]<br/>class = survived>, fillcolor="#399de5ff"] ;
257 -> 258 ;
259 [label=<gini = 0.0<br/>samples = 1<br/>value = [1, 0]<br/>class = died>, fillcolor="#e58139ff"] ;
257 -> 259 ;
260 [label=<gini = 0.0<br/>samples = 8<br/>value = [0, 8]<br/>class = survived>, fillcolor="#399de5ff"] ;
254 -> 260 ;
261 [label=<gini = 0.0<br/>samples = 2<br/>value = [2, 0]<br/>class = died>, fillcolor="#e58139ff"] ;
253 -> 261 ;
262 [label=<Age &le; 5.5<br/>gini = 0.236<br/>samples = 22<br/>value = [19, 3]<br/>class = died>, fillcolor="#e58139d7"] ;
214 -> 262 ;
263 [label=<Age &le; 3.5<br/>gini = 0.48<br/>samples = 5<br/>value = [3, 2]<br/>class = died>, fillcolor="#e5813955"] ;
262 -> 263 ;
264 [label=<gini = 0.0<br/>samples = 3<br/>value = [3, 0]<br/>class = died>, fillcolor="#e58139ff"] ;
263 -> 264 ;
265 [label=<gini = 0.0<br/>samples = 2<br/>value = [0, 2]<br/>class = survived>, fillcolor="#399de5ff"] ;
263 -> 265 ;
266 [label=<Parch &le; 4.5<br/>gini = 0.111<br/>samples = 17<br/>value = [16, 1]<br/>class = died>, fillcolor="#e58139ef"] ;
262 -> 266 ;
267 [label=<gini = 0.0<br/>samples = 13<br/>value = [13, 0]<br/>class = died>, fillcolor="#e58139ff"] ;
266 -> 267 ;
268 [label=<Age &le; 38.5<br/>gini = 0.375<br/>samples = 4<br/>value = [3, 1]<br/>class = died>, fillcolor="#e58139aa"] ;
266 -> 268 ;
269 [label=<gini = 0.0<br/>samples = 1<br/>value = [0, 1]<br/>class = survived>, fillcolor="#399de5ff"] ;
268 -> 269 ;
270 [label=<gini = 0.0<br/>samples = 3<br/>value = [3, 0]<br/>class = died>, fillcolor="#e58139ff"] ;
268 -> 270 ;
}
